function [y1] = c(x1)
%MYNEURALNETWORKFUNCTION neural network simulation function.
%
% Generated by Neural Network Toolbox function genFunction, 13-Feb-2015 00:22:49.
% 
% [y1] = myNeuralNetworkFunction(x1) takes these arguments:
%   x = 43xQ matrix, input #1
% and returns:
%   y = 2xQ matrix, output #1
% where Q is the number of samples.

%#ok<*RPMT0>

  % ===== NEURAL NETWORK CONSTANTS =====
  
  % Input 1
  x1_step1_xoffset = [-0.579411208629608;-0.589196622371674;-0.736807763576508;-0.54952484369278;0;0;0;0;0;-0.159819006919861;-0.295506298542023;0;0;0;0;0;0;-0.694104492664337;-1.22030508518219;-1.47010207176209;-0.985206723213196;0;0;0;0;0;0;-0.0794289037585258;-0.507396817207336;-0.4595727622509;-0.0765396133065224;0;0;0;0;-0.644164621829987;-1.43093883991241;-1.35110819339752;-0.88575005531311;0;0;0;0];
  x1_step1_gain = [1.28247293250245;1.39496922056714;1.28246979542359;1.24760015558178;6.35041584051982;6.06618554580052;8.43554283310195;5.97820053385139;1.55089155010248;1.27803466288261;1.25118672716564;1.52073919101197;3.33174483218316;3.09097106127808;3.22724198049734;2.9929499693921;2;0.784235558386689;0.642241170417306;0.570435675730959;0.688454802233574;2.31356137415806;2.32822562890043;2.11885476723871;2.49301913107878;2;2;1.27558520754767;0.994369677194668;0.977284059344675;1.2549713478188;2.66044967474649;2.78268300130483;2.61367371359197;2.73048690072407;1.04519346000277;0.76448260545368;0.835646610659091;0.994194434360605;4.81072677612982;5.28152383710658;6.25148478770303;6.45142802868478];
  x1_step1_ymin = -1;
  
  % Layer 1
  b1 = [-143.93604176712446;-5.9622178947886884;-66.897777886386507;28.147900261201244;-9.5381369722781635;47.24415170855066;28.855059783336955;8.7762762927191282;-87.836180380389308;37.004950759881083];
  IW1_1 = [1.029891542102557 75.693381406924502 -18.331934423044416 16.926960438704167 44.197986764467458 -136.91586027370181 -26.821684470679966 14.357396845599805 -1.6400652889154395 -102.02940135748224 -30.27906995951621 -17.95449283655373 46.612682754513564 0.065323705360713191 -82.903380626921688 85.252027944341606 -1.4369701625736482 -51.271226586235429 -34.775150905480416 25.079825412579169 36.271009094704134 109.66461958182616 -66.297354274841979 -198.14865329193256 55.424911081169306 -2.1437427943687211 -4.1882011487584272 14.428643894692792 -40.029654141209974 15.548958468740436 43.410015642773246 30.582273415586059 -32.049569808950963 -148.67229742112019 63.167020616383894 -16.497645161431652 49.17021614337618 59.779727209857256 -0.79752231217776881 51.944721179885498 -55.026777876055235 -98.71371574741076 45.065520955528413;10.129559454996453 5.9268979161858271 -16.742132761062919 9.8256723605474292 -6.8689954470219341 -8.6773832933275372 17.016321291858901 -7.3758540643354955 10.096529991597869 -6.1400042640843306 11.661261799926056 -6.769925838158656 -9.6104049833258465 6.5552697023092605 0.29295771272225046 6.0654201460213244 -0.5019879201274775 -11.058048844164547 0.43450880289026017 -3.3633659028273284 9.2733307736034636 1.678924631530732 -4.821993688992757 10.647591268477662 4.5974594501036758 0.4770220725037948 -0.93318581909151543 -19.521360025024521 -29.388408743639481 6.7745480980441961 14.755430768941167 17.197630349970154 16.760534619759287 0.80795359901119213 -11.26221271464019 6.156423453957018 19.506966884413533 18.715812745068597 -31.071945839291189 -0.81753505934750725 -9.1626759118501617 -29.92650586483472 27.448796028555002;-0.076207233834128196 2.9158232496602525 2.6231934693512606 -1.1401699215330834 0.83252935445456977 -12.904151462325576 -10.084198146662388 -5.1268805315805031 0.46818612645176616 -8.6452999876448047 1.6845006713100665 -1.6775670112728269 2.05703834477276 -13.784397977551022 -22.129917761850315 -10.682397731651523 -0.19135570046216713 -3.562054268342687 -4.1736540698532556 2.2367812561366582 -0.40677340045892763 5.8842788176856526 -21.526267962351866 -35.785160489457915 -13.02446334826349 0.17087976362104304 -0.72050873210123012 7.6463576566822464 5.7555606160485056 -3.0858571088982867 1.7347848871718963 -4.5448675666319742 -21.404892989694883 -28.25097427673759 -11.892357789591525 -6.2294940753070476 0.23450309889502607 -0.53394640602054422 3.1773200804615622 5.966669812917873 -9.3731710526121024 -9.1467313500102954 -6.6624733086344179;32.538727259881647 3.9421162946771737 -11.979105347072828 -44.500583918878306 -18.275718915219787 -25.074185678611016 -10.19405850468357 74.739325416623345 -5.1255827542447587 -2.8354043821483028 5.7127608071123994 12.412151723280202 36.417467454852535 -32.522126300056463 -53.901662739158056 37.626575476839577 0.4286230773374623 -12.720468681375207 13.571344096033854 -16.331527660997018 4.817861743113502 63.73955167892953 -49.576511015900927 -63.872424487333546 57.613925996895347 -0.47210824306632126 -0.073331325808027287 4.378572997834568 -14.158620975835955 12.980795152683207 -14.247751174419411 52.741812980332007 -27.274359655838154 -57.818789705706422 50.114322347149844 -6.6402411002189368 -5.4193959000586531 8.2933539210447265 8.9851743538609785 45.139201507732835 -19.54844387000551 -31.889805597800137 11.372361161883914;-4.5049918094835641 4.2729123831887179 -11.197008182715383 -14.868706219993001 0.030949584587959045 -6.6439469941219089 13.92170214870492 7.6894417635718071 -1.3466459416062513 -16.726309094847132 25.415283915308176 5.2880013028117361 -3.9362439659668507 -0.83685036937729462 -1.1663345689127373 -11.606567232983252 1.3383784826348097 -4.781623309598606 -7.0258653356528455 -6.4898231926453906 5.8566190938609068 -1.2448761521158418 -4.0288881225875706 16.608782728680431 -10.239158396937173 -1.5676711103251098 -0.46036054613957034 11.496142638724081 20.419877035103472 -13.735631970302968 7.3368139926615541 -20.243660137010963 -14.436135885247495 14.446646721106628 -6.2939670584580494 -8.3925080516712534 1.8044794734728065 7.1933991109716349 2.6034865804976999 1.6495873577791276 -5.2499636857164118 4.364015024275167 -6.1001641004634344;-14.488400365735792 -65.061165056508571 -11.620345384041325 55.335475835758274 15.486804271769099 24.031522900619834 27.064419413593974 -31.133545501449916 91.106152813395937 128.9586682686768 46.355832976051992 88.162264355921067 -58.659090288814724 -23.008740462544161 -67.830903997198192 -47.51849396456879 2.6177150420304081 19.664209212034486 132.18034117133604 -10.749479166108879 -50.941282345200406 -36.782666097747246 -82.726131907115757 0.72288996847460663 18.51064164762488 14.370833574818885 22.794683211377595 -165.99527613307549 -41.957736326471306 -117.9331271726136 -50.923250715241217 69.834252154809846 12.355479298733684 41.797275700611223 41.939362079817926 -46.705552503383792 -81.516136784904631 -43.407302184536874 12.241942178409751 25.401357765629509 114.74335124220048 -17.694405619782529 6.9560712000001672;6.5308141382189469 5.4653948236439414 -9.265674439034612 3.6651537734030883 8.5953812953316913 -5.0168678933564053 -0.44960258202740544 -6.8566342221051393 13.227397609644955 12.542565309150298 9.281970977006706 -10.186829794739985 7.5777519367020112 -4.108942159386852 -21.287716094403692 29.846921270826403 0.0061987411699331169 -6.2702147583913241 -10.017886506473628 25.124159951962518 4.9614576413546736 10.781017411296476 3.582138300611275 -45.066513147779219 19.336925032242736 -14.248806170832113 13.278749051172811 -42.074833366417096 -1.7223199604470829 -7.3714720791464128 5.5272053604385976 36.313496571787176 3.7082417376119174 -14.189620789679346 15.603873188765885 5.2638631395225488 3.1190295453742793 -2.3372912678964228 -15.876725127949365 10.301455534014496 3.221054725564461 -4.1521930068514896 19.521986295504835;34.835059323301344 6.4659074575295872 -12.30549419949347 -44.780197644656994 -45.960300535551063 -10.432491568974076 3.739527698760714 46.933642322987133 6.8374040832171046 -2.2121207638076266 0.1134534959495983 13.794418433499855 -19.277002523284697 -3.1744708351174173 -9.3443295806526869 -9.8426060605824883 0.37083124530695633 -7.4421296480244088 4.6838703294410458 -16.745629570944313 7.3002081814849351 -2.1752431279106732 -4.3059799429311783 1.5690804416065098 -6.8401972714918164 -0.60074557593838951 2.5247319714408043 -21.21086934001374 -6.1047570674610396 6.8983268749833409 10.009216464196795 13.328422934359443 0.55253887591942208 -6.3893429509076247 -18.078473095714049 -9.5727427228534374 -6.2388131217066096 8.2097925172090545 -1.7476522084753896 20.035077278565893 -0.84343526272569092 -5.4437815853122746 -1.1837884422099025;-12.239248520540205 -31.927543202922116 20.102007846421731 154.51522780966042 35.056094503715592 -138.51035049727528 45.489224393390401 -42.38180607901522 83.457880220863814 -33.11348451275218 5.9261685861897941 -33.459067398460789 112.00278792221926 12.626990283971594 105.32645875827745 -41.062614620256056 -15.858356198629982 32.554953739582231 -86.793392732117525 -15.797434620499196 -28.573712957531669 49.600031945805782 138.05913593970959 51.709984075327483 -34.913970392260225 11.325462493753074 21.90370873604353 -109.02104594042684 64.943243567302176 2.7641528056152787 79.317397990966086 -148.00353670317821 -8.0170786259787761 -25.479173016823641 60.688787457270756 -122.25357019957403 101.82074624540697 -109.65400572360582 50.079457220535659 -53.862180150572591 -16.849826135468454 -84.549772447797295 14.217611220889346;12.030150345865172 -5.6304306995896765 6.5404384535338043 -18.308068617765777 -48.296045673168329 5.0673535963365257 1.671948723522632 56.747389435958169 -3.7256004440829118 -13.172030083260479 -9.3555673387472051 -29.954876578022116 -73.446794338103871 3.7845568888342207 19.481282785386554 79.787754379288288 0.0039784088685135763 -5.9328287444276828 5.2275282916673875 -25.672487859799499 -0.23154382199089052 -97.367605316384953 -1.6632269095233192 43.693855306178335 85.013753296970322 7.9304130722977693 -5.0760104215317234 4.9098491818298609 1.4678885141001945 10.442484491444013 1.5025774621208874 -100.85671001538223 -2.7522590246523531 12.974377593134088 90.016756813974879 -6.4580768480297648 -1.3434075022185934 5.4085458310902865 4.8323666968915688 -40.818777780339886 -4.3920006001839269 2.4174708446343058 32.082052112406259];
  
  % Layer 2
  b2 = [-0.99404613350349169;0.99404613363990579];
  LW2_1 = [-0.0011965654671139614 -0.0034220349843164148 -0.0023789875391641221 -1.0037969514906819 -0.0045762178708328646 -0.0022193964876133111 0.99367011757051349 1.0013746633927456 -0.00061124099429542321 1.0003985176974501;0.0011965651800689065 0.0034220352695872851 0.0023789875734744267 1.0037969519250782 0.0045762179306970494 0.0022193963382686069 -0.99367011752946666 -1.0013746637444298 0.00061124118661986561 -1.0003985175136891];
  
  % Output 1
  y1_step1_ymin = -1;
  y1_step1_gain = [2;2];
  y1_step1_xoffset = [0;0];
  
  % ===== SIMULATION ========
  
  % Dimensions
  Q = size(x1,2); % samples
  
  % Input 1
  xp1 = mapminmax_apply(x1,x1_step1_gain,x1_step1_xoffset,x1_step1_ymin);
  
  % Layer 1
  a1 = tansig_apply(repmat(b1,1,Q) + IW1_1*xp1);
  
  % Layer 2
  a2 = repmat(b2,1,Q) + LW2_1*a1;
  
  % Output 1
  y1 = mapminmax_reverse(a2,y1_step1_gain,y1_step1_xoffset,y1_step1_ymin);
end

% ===== MODULE FUNCTIONS ========

% Map Minimum and Maximum Input Processing Function
function y = mapminmax_apply(x,settings_gain,settings_xoffset,settings_ymin)
  y = bsxfun(@minus,x,settings_xoffset);
  y = bsxfun(@times,y,settings_gain);
  y = bsxfun(@plus,y,settings_ymin);
end

% Sigmoid Symmetric Transfer Function
function a = tansig_apply(n)
  a = 2 ./ (1 + exp(-2*n)) - 1;
end

% Map Minimum and Maximum Output Reverse-Processing Function
function x = mapminmax_reverse(y,settings_gain,settings_xoffset,settings_ymin)
  x = bsxfun(@minus,y,settings_ymin);
  x = bsxfun(@rdivide,x,settings_gain);
  x = bsxfun(@plus,x,settings_xoffset);
end
